MTP
version = 1.1.0
potential_name = MTP1m
scaling = 1.628514627472612e-01
species_count = 4
potential_tag = 
radial_basis_type = RBChebyshev
	min_dist = 2.000000000000000e+00
	max_dist = 6.000000000000000e+00
	radial_basis_size = 8
	radial_funcs_count = 3
	radial_coeffs
		0-0
			{1.691135478624220e-01, 2.433341331921100e-01, 3.178899118660458e-01, 1.811334953977378e-01, 1.470076484978838e-01, 9.481255846844390e-02, 2.607777008192003e-02, 2.577149388154935e-02}
			{1.224973898397482e-01, 2.044181545943723e-02, 3.501179327183091e-02, 7.511260309730652e-02, -6.945746009111728e-02, 7.762233521532914e-02, -3.407644765418559e-02, 1.978607482790141e-02}
			{-7.460718918892622e-03, -5.800220128997074e-02, -9.058156415013811e-02, -3.291253042467555e-02, -7.902533541868340e-02, 8.266820031899923e-03, -2.563523996827463e-02, 2.617636510041371e-03}
		0-1
			{7.801563720742379e-02, 7.779700637578550e-02, 1.161374393686506e-01, 9.535962039196190e-02, 2.742232840841559e-03, 5.574018443957052e-02, -1.116566659566758e-02, 1.045542103595821e-02}
			{1.442928351080096e-01, 1.412802793791394e-01, 1.314016441718690e-01, 7.818401787019484e-02, 4.440783431635520e-02, 3.763611180784759e-02, 8.509144578359979e-03, 9.196698679357114e-03}
			{-3.291982763297064e-02, -5.423236388565432e-04, -6.157317160971880e-02, -7.013378675093480e-02, 2.201725034137850e-02, -2.343948348956828e-02, 1.436467232410318e-02, -2.533856655538176e-03}
		0-2
			{9.553582289381453e-03, 9.480308996830784e-02, -3.187764609322849e-02, -8.209510944169676e-03, 1.059584266096284e-02, -1.020591310480815e-02, -7.386170835432028e-03, -4.326500489568452e-03}
			{1.047011759818278e-02, 9.089153855532527e-02, 9.358369924783315e-02, 5.324049029936651e-02, 4.698098152239672e-02, 3.280708175925057e-02, 1.895685057385657e-02, 8.655332727549888e-03}
			{-1.365811496138068e-01, 1.755299392462787e-01, -2.031579586296994e-01, 9.390825643091025e-02, -1.191288244365619e-01, 1.282278606324730e-02, 4.668394426212477e-03, 3.058119534548344e-02}
		0-3
			{4.146269419971178e-02, 1.951149650591460e-02, 6.855600763844741e-02, -6.985137566978473e-02, 5.003159449695488e-02, -2.978595097825286e-02, 6.845039469836682e-03, -8.004763779699829e-03}
			{2.253146215734898e-02, 8.431961786969724e-02, 6.685202493466538e-02, 4.411422193495262e-02, 3.717107258842183e-02, 1.881696288587018e-02, 5.223340840224162e-03, 3.418011773705758e-03}
			{-1.342743087493878e-01, 1.569891539460917e-01, -1.504620755376768e-01, 5.868611107355865e-02, -5.484780266195063e-02, 1.319041487083530e-02, 1.243452891186451e-02, 1.599913117973913e-02}
		1-0
			{-2.869866976527400e-02, -1.002486609383234e-01, -1.351482352677871e-01, -1.187244219596993e-02, -9.293584237180071e-02, 1.251426503758843e-02, -2.237708532056784e-02, 3.578348049627033e-03}
			{-4.311040387705076e-02, -3.757552187480371e-02, -2.260431946943302e-02, -3.503242482257604e-02, 3.437091138066459e-03, -2.275503111250037e-02, 2.824011419494397e-03, -6.178159522418300e-03}
			{-1.516677631998578e-01, -1.858977436518239e-01, -1.705909025357814e-01, -1.003846438053878e-01, -1.092105994898054e-01, -6.413574744220264e-02, -2.751170187108374e-02, -1.876830749829968e-02}
		1-1
			{-7.358237010390804e-02, -2.344770645059030e-01, -2.028293633463934e-01, -8.363969341052885e-02, -1.326767453378473e-01, -1.120213887432934e-02, -3.189066411525201e-02, -2.980764227868582e-03}
			{7.679707269542822e-03, 1.012905174536360e-01, 5.389782171306914e-02, 5.105003683760866e-02, 3.729012721252321e-02, 1.195318633425953e-02, 9.400763740613018e-03, 2.395419045268269e-03}
			{-6.494000547393053e-02, -5.355700672099117e-02, 3.764597621963827e-03, -1.518143812789093e-02, 7.869989611586595e-03, 8.878342221751144e-03, -2.732970064909999e-04, 5.365529196136870e-03}
		1-2
			{2.446787738522502e-02, -1.954859387207271e-01, 3.626986275678201e-02, -1.155825255147339e-02, -1.189453525488201e-02, 7.905917284389071e-03, 4.642204799922865e-03, 4.291782012892847e-03}
			{-7.796320645660866e-03, 9.068797424548091e-03, -2.056640936409121e-02, -1.574672465025072e-02, -3.356358262195593e-03, -9.949503238171157e-03, -4.399960875519473e-03, -3.296924134040700e-03}
			{1.319052719525513e-01, -2.141407104909634e-01, 1.902992356234577e-01, -9.516312011694593e-02, 4.467478546163230e-02, -2.567549693752750e-02, -5.437485434239287e-03, -1.578492624176593e-02}
		1-3
			{1.034608615719862e-02, -1.525845501488549e-01, -3.996336076912921e-02, 3.320625583211261e-02, -5.213844539551375e-02, 9.580470674309956e-03, -7.776353346320634e-03, 2.544809447896891e-04}
			{5.628010980945444e-03, -1.736352888972580e-02, 2.047287244749125e-02, -3.546219171190083e-02, 1.347954735009273e-02, -1.128607029789017e-02, 1.704983369048731e-03, -1.682331793813551e-03}
			{2.243420834839527e-02, -4.140828533147358e-02, 2.075989484202473e-02, 7.220049964101646e-02, -5.360970991028985e-02, 6.225170490421706e-02, -1.550530859256405e-02, 8.416546105842092e-03}
		2-0
			{1.080097089489231e-02, 3.632070856067544e-02, 4.207092103094434e-02, 1.903985878947670e-02, 2.083675002479670e-02, 6.689516820366717e-03, 2.787446298878881e-03, 1.942203523222093e-03}
			{-1.930572553634289e-01, -2.815266923355804e-02, -1.993359388047775e-01, -8.266290770239150e-02, -5.739888197240661e-02, -3.549957849874644e-02, -1.196841155056505e-02, -2.339654075087662e-03}
			{2.428273936042512e-02, -1.595062730330616e-01, 7.647211295581802e-02, -7.026281381959738e-02, 6.438181095892173e-02, 8.985781445272905e-03, -1.032971314309414e-02, -2.176904765468129e-02}
		2-1
			{-1.302337221633761e-02, 1.069174750413417e-02, 3.851425839262637e-03, 1.068803193404069e-03, 1.237312663275654e-03, 8.118826711531643e-04, -1.233582745473334e-03, 2.214538380285791e-03}
			{-1.050173953793839e-01, -1.156565572664931e-02, -5.567887203646037e-02, -6.908149336058332e-02, 9.358960262945096e-03, -2.495031444170354e-02, 2.975750798226825e-03, -6.997937979887154e-03}
			{-1.265578107228905e-01, 2.081074452960634e-02, -2.227217311400476e-01, 2.840500684071703e-02, -7.553838210441810e-02, 1.069217309680086e-02, -9.756653442378721e-03, 5.276323112112596e-03}
		2-2
			{1.376982054356093e-01, 1.329190745109170e-01, 1.864166714161995e-01, 1.892051123001561e-01, 4.444359911486170e-02, 1.242434524029695e-01, -1.740551916723907e-03, 3.351623379555976e-02}
			{2.306274015624570e-01, 3.509936347379142e-01, 2.682106300249129e-01, 7.439110830263293e-02, 1.353639051410567e-01, -3.472230281596327e-02, 2.860985365508864e-02, -1.778742441835541e-02}
			{-4.251222342270167e-02, 5.704255941526835e-02, -6.957805398049495e-02, -1.885568235281816e-01, 2.574269910836746e-02, -1.641691907561064e-01, 1.879399150136151e-02, -4.856339850011772e-02}
		2-3
			{-3.661262864841364e-03, -3.598685400935630e-02, 2.538722357245843e-02, 9.348457930207400e-03, 2.963390316509222e-02, 1.014570495914706e-02, 8.109366169682587e-03, 6.684011232653640e-03}
			{2.500534971447569e-01, 2.620129003171299e-01, 2.028790170972825e-01, 1.040620556201294e-01, 3.006997216188842e-02, 1.137309502819560e-02, 2.409384915586340e-03, -1.287810567601062e-02}
			{-1.832820632616030e-01, -9.053437568817174e-02, -9.125162865863064e-02, -1.158196144238440e-01, 5.022451368461256e-02, -3.118722153810728e-03, 8.551015301351350e-03, -2.332639901189256e-02}
		3-0
			{1.310528746591341e-01, -1.324481325898324e-01, 1.674554044471512e-01, -3.774045980321465e-02, 6.320934833995413e-02, -3.232821733608562e-02, 2.382481795044936e-02, -9.670728745648081e-03}
			{-8.416224398775526e-02, 8.458989652033244e-02, -1.505804304090743e-01, 3.263275984401987e-02, -6.494236123745956e-02, 2.830285386924016e-02, -1.551962583364364e-02, 9.644890352448395e-03}
			{1.782378083612589e-01, -4.339656734814514e-02, 7.170334096158179e-02, 1.152258042704012e-01, -1.559913543490014e-02, 4.533975878760521e-02, -1.667272240695480e-02, -8.087407639450669e-03}
		3-1
			{1.788247905360107e-01, -5.605783234474833e-02, 2.315721761706972e-01, 9.291606792247794e-03, 8.709207294759500e-02, -6.321376571170243e-03, 2.811782167051554e-02, -2.805306540346002e-03}
			{-1.159832784979078e-01, 3.231426657058503e-02, -1.937326858258398e-01, 9.475845063017225e-03, -8.068750321839786e-02, 1.551107750551405e-02, -1.983858365656229e-02, 7.168453478564468e-03}
			{3.596171560969173e-02, 3.318378972829114e-02, -1.279951856478452e-01, 1.064056815783414e-01, -7.870823308056553e-02, 2.198815292872064e-02, -4.224648917557143e-03, 6.953957937516456e-03}
		3-2
			{-1.594580826938475e-01, -2.070838041895028e-01, -7.499193063760812e-02, 9.155024981745148e-03, 5.913945682498124e-03, 3.496007038161816e-02, 5.008786194297530e-03, 1.205052488203615e-02}
			{1.038161064282555e-02, 3.403908240287074e-02, -1.138530186245770e-01, -1.681321717875725e-01, -7.761045200602489e-02, -1.152025579652728e-01, -1.558266816695383e-02, -3.230908120772886e-02}
			{-2.269868503918878e-02, -8.692999040264721e-02, -2.052280548810261e-01, -2.224725103099940e-01, -1.823871600855467e-01, -2.030598894120438e-01, -2.320750788787648e-02, -3.786756266326097e-02}
		3-3
			{-1.675729752034029e-01, -5.076460268531769e-02, -1.271731741816644e-01, 1.288533114617343e-01, -3.245135045678635e-02, 8.167505967787703e-02, -2.384657321910490e-03, 1.944050699514104e-02}
			{1.465844259131380e-01, 2.542404925206742e-01, 6.849983240831223e-02, -3.779156432068149e-02, -2.702765249869888e-02, -6.672904744682823e-02, -1.212438292430944e-02, -2.149080582749833e-02}
			{4.607328404133089e-03, 7.176841182578302e-03, 4.518961631778731e-02, -6.582395224620834e-02, -1.613079270182892e-02, -5.227810229070336e-02, -4.624765709786658e-03, -1.478326318628062e-02}
alpha_moments_count = 84
alpha_index_basic_count = 46
alpha_index_basic = {{0, 0, 0, 0}, {0, 1, 0, 0}, {0, 0, 1, 0}, {0, 0, 0, 1}, {0, 2, 0, 0}, {0, 1, 1, 0}, {0, 1, 0, 1}, {0, 0, 2, 0}, {0, 0, 1, 1}, {0, 0, 0, 2}, {0, 3, 0, 0}, {0, 2, 1, 0}, {0, 2, 0, 1}, {0, 1, 2, 0}, {0, 1, 1, 1}, {0, 1, 0, 2}, {0, 0, 3, 0}, {0, 0, 2, 1}, {0, 0, 1, 2}, {0, 0, 0, 3}, {0, 4, 0, 0}, {0, 3, 1, 0}, {0, 3, 0, 1}, {0, 2, 2, 0}, {0, 2, 1, 1}, {0, 2, 0, 2}, {0, 1, 3, 0}, {0, 1, 2, 1}, {0, 1, 1, 2}, {0, 1, 0, 3}, {0, 0, 4, 0}, {0, 0, 3, 1}, {0, 0, 2, 2}, {0, 0, 1, 3}, {0, 0, 0, 4}, {1, 0, 0, 0}, {1, 1, 0, 0}, {1, 0, 1, 0}, {1, 0, 0, 1}, {1, 2, 0, 0}, {1, 1, 1, 0}, {1, 1, 0, 1}, {1, 0, 2, 0}, {1, 0, 1, 1}, {1, 0, 0, 2}, {2, 0, 0, 0}}
alpha_index_times_count = 117
alpha_index_times = {{0, 0, 1, 46}, {1, 1, 1, 47}, {2, 2, 1, 47}, {3, 3, 1, 47}, {1, 4, 1, 48}, {2, 5, 1, 48}, {3, 6, 1, 48}, {1, 5, 1, 49}, {2, 7, 1, 49}, {3, 8, 1, 49}, {1, 6, 1, 50}, {2, 8, 1, 50}, {3, 9, 1, 50}, {4, 4, 1, 51}, {5, 5, 1, 51}, {6, 6, 1, 51}, {4, 5, 1, 52}, {5, 7, 1, 52}, {6, 8, 1, 52}, {4, 6, 1, 53}, {5, 8, 1, 53}, {6, 9, 1, 53}, {5, 5, 1, 54}, {7, 7, 1, 54}, {8, 8, 1, 54}, {5, 6, 1, 55}, {7, 8, 1, 55}, {8, 9, 1, 55}, {6, 6, 1, 56}, {8, 8, 1, 56}, {9, 9, 1, 56}, {4, 4, 1, 57}, {5, 5, 2, 57}, {6, 6, 2, 57}, {7, 7, 1, 57}, {8, 8, 2, 57}, {9, 9, 1, 57}, {4, 10, 1, 58}, {5, 11, 2, 58}, {6, 12, 2, 58}, {7, 13, 1, 58}, {8, 14, 2, 58}, {9, 15, 1, 58}, {4, 11, 1, 59}, {5, 13, 2, 59}, {6, 14, 2, 59}, {7, 16, 1, 59}, {8, 17, 2, 59}, {9, 18, 1, 59}, {4, 12, 1, 60}, {5, 14, 2, 60}, {6, 15, 2, 60}, {7, 17, 1, 60}, {8, 18, 2, 60}, {9, 19, 1, 60}, {10, 10, 1, 61}, {11, 11, 3, 61}, {12, 12, 3, 61}, {13, 13, 3, 61}, {14, 14, 6, 61}, {15, 15, 3, 61}, {16, 16, 1, 61}, {17, 17, 3, 61}, {18, 18, 3, 61}, {19, 19, 1, 61}, {20, 20, 1, 62}, {21, 21, 4, 62}, {22, 22, 4, 62}, {23, 23, 6, 62}, {24, 24, 12, 62}, {25, 25, 6, 62}, {26, 26, 4, 62}, {27, 27, 12, 62}, {28, 28, 12, 62}, {29, 29, 4, 62}, {30, 30, 1, 62}, {31, 31, 4, 62}, {32, 32, 6, 62}, {33, 33, 4, 62}, {34, 34, 1, 62}, {0, 35, 1, 63}, {1, 36, 1, 64}, {2, 37, 1, 64}, {3, 38, 1, 64}, {4, 39, 1, 65}, {5, 40, 2, 65}, {6, 41, 2, 65}, {7, 42, 1, 65}, {8, 43, 2, 65}, {9, 44, 1, 65}, {0, 45, 1, 66}, {35, 35, 1, 67}, {0, 46, 1, 68}, {0, 47, 1, 69}, {0, 57, 1, 70}, {0, 61, 1, 71}, {1, 48, 1, 72}, {2, 49, 1, 72}, {3, 50, 1, 72}, {1, 58, 1, 73}, {2, 59, 1, 73}, {3, 60, 1, 73}, {4, 51, 1, 74}, {5, 52, 2, 74}, {6, 53, 2, 74}, {7, 54, 1, 74}, {8, 55, 2, 74}, {9, 56, 1, 74}, {0, 63, 1, 75}, {0, 64, 1, 76}, {35, 47, 1, 77}, {47, 47, 1, 78}, {0, 68, 1, 79}, {0, 69, 1, 80}, {0, 70, 1, 81}, {0, 72, 1, 82}, {0, 75, 1, 83}}
alpha_scalar_moments = 29
alpha_moment_mapping = {0, 35, 45, 46, 47, 57, 61, 62, 63, 64, 65, 66, 67, 68, 69, 70, 71, 72, 73, 74, 75, 76, 77, 79, 80, 81, 82, 78, 83}
species_coeffs = {-2.942240854956985e+00, -2.930028505821044e+00, -2.930028505821044e+00, -2.930028505821044e+00}
moment_coeffs = {1.097265060091969e+00, 5.059209104498445e+00, -3.428637782218088e+00, 4.257172948994578e-01, -1.780004014012073e+00, 8.712774133420121e+00, 1.517632673923947e+00, 6.033669072411896e-01, 4.637095819364482e+00, -9.612734311011785e+00, 1.169632062244850e+01, 1.411108091526615e+00, 1.156240297045926e+00, 4.431332285473701e-03, -2.620109825658337e+00, 2.783789903345836e+00, -1.953330610499632e-01, -2.995935006675916e+00, -1.527263851896888e+00, -2.771707144289059e+00, 2.267555999846487e+00, -8.670745959478491e+00, -7.992440911487816e+00, -3.554453245213971e-02, -1.370714190258381e+00, -2.927841718497937e+00, 5.451375981272349e+00, 7.624626955441409e-01, -2.836540715854582e+00}