MTP
version = 1.1.0
potential_name = MTP1m
scaling = 2.345061063560561e-01
species_count = 4
potential_tag = 
radial_basis_type = RBChebyshev
	min_dist = 2.000000000000000e+00
	max_dist = 6.000000000000000e+00
	radial_basis_size = 8
	radial_funcs_count = 3
	radial_coeffs
		0-0
			{8.132534198493320e-02, 2.481415157284134e-01, 9.735260447898160e-02, 1.391708487601845e-01, 4.639203257555875e-02, 4.646746070390580e-02, 1.072958031787462e-02, 8.598022943402853e-03}
			{-9.155706484666480e-02, 4.308309770818915e-03, -6.083133902348447e-02, 2.053535455796525e-02, 2.722250470247962e-02, 5.262770238076075e-03, 1.329703442697581e-02, 6.201624907225053e-04}
			{6.308038611347730e-02, -1.423526504328916e-02, 1.061107714027384e-01, -3.624503690511945e-03, 5.680233585968220e-02, -5.632899670788782e-04, 1.309782572887938e-02, 8.105751995528981e-04}
		0-1
			{1.000164809113806e-01, 2.380290781969025e-01, 9.376389996868875e-02, 1.567132608984101e-01, 1.155870056190027e-02, 5.821189381622782e-02, -6.122774866680465e-04, 9.612413848264128e-03}
			{-8.159112944756199e-02, -1.169307765330503e-02, -8.590917791423019e-02, 5.491998781554538e-02, -2.679738396465723e-02, 4.311243145651935e-02, -4.246583784929653e-03, 1.532750326201963e-02}
			{7.985337577799713e-02, -6.629368324992915e-02, 9.974586064021812e-02, -3.167858760011091e-02, 2.475504546762310e-02, -2.610180428018695e-02, 6.983431584525235e-03, -7.765741309454116e-03}
		0-2
			{3.747982219112270e-02, 1.389973579934262e-01, 5.445338138913245e-02, 3.966671772475604e-02, 3.938966143761667e-02, 1.425897777732802e-02, 9.228732768093328e-03, 1.498607753140398e-03}
			{1.272051221915155e-01, 2.119917457541000e-01, 1.244214911799254e-01, 8.185043874868014e-02, 4.058368658481638e-02, 3.199824875687669e-02, 9.342195673503376e-03, 6.866962377118420e-03}
			{6.766059001341534e-02, 1.078744158964043e-01, 7.213741957732342e-02, 1.833437201512926e-02, 4.295571869254197e-02, 7.291647427650550e-03, 7.952331982652274e-03, -2.272531715512358e-03}
		0-3
			{2.822770646580619e-02, 2.029163613377600e-02, 6.441844892059258e-02, -4.574164913300174e-02, 4.797448302272508e-02, -1.841413724151321e-02, 9.300649035287835e-03, -7.008607885495214e-03}
			{6.427475767033087e-03, -9.024862243920781e-02, 3.425364124501026e-03, -7.117971777723059e-02, -1.098338753066602e-02, -2.380749662546117e-02, 3.402701242047324e-03, -6.832874913765958e-03}
			{1.144291163746185e-01, -1.204183202151345e-02, 1.822719601545003e-01, -6.630204821894631e-02, 1.016330985711141e-01, -3.331086511553222e-02, 2.262627080361710e-02, -1.680165227606691e-02}
		1-0
			{-9.723142743022849e-02, -1.107987294926825e-01, -1.660999803863408e-01, -6.115152460293048e-02, -9.295229854948910e-02, -2.063896467158612e-02, -2.298781544696602e-02, -4.178899840221261e-03}
			{1.281957877812894e-01, 2.521468778900687e-01, 4.364814909704027e-02, 7.008112179136038e-02, -5.277429878660213e-02, -9.048584311368174e-03, -1.957918721642243e-02, -7.922016884245254e-03}
			{2.374750982855153e-01, 1.926370068156384e-01, 2.803110969573608e-01, 9.574413329516804e-02, 9.396465710225410e-02, 5.717882842077842e-02, 6.367640397852965e-03, 1.762132449640840e-02}
		1-1
			{-7.046185345885800e-02, -1.210755208963419e-01, -1.180939351427343e-01, -6.197143914285561e-02, -7.012169492362229e-02, -1.285744318001792e-02, -1.887216102062086e-02, -9.648166546211962e-04}
			{1.082345743304817e-01, 1.703287671414230e-01, 1.951312364191281e-02, 5.459659017709654e-02, -6.496361153786408e-02, 2.133632597029050e-02, -2.948501373222553e-02, 3.708429816026795e-03}
			{1.891502148239632e-01, 9.076369147364867e-02, 1.713879836208718e-01, 3.603959526771220e-02, 1.987454345473747e-02, 1.448309144146676e-02, -7.331840009869401e-03, 2.461971063179518e-03}
		1-2
			{-1.931794052305052e-02, -9.643549568915741e-02, -4.447842234766521e-02, -2.246240635784934e-02, -3.220542644118509e-02, -1.237950922929557e-02, -7.710511526285518e-03, -2.021156010992041e-03}
			{-5.627945222914473e-04, 2.483340794777490e-03, -4.553083884760390e-03, 3.035643580154140e-02, 1.134288652303594e-02, -7.244113020640823e-03, -1.614657596905340e-03, -4.266068723388521e-03}
			{-3.095657640987727e-02, 2.318963460419918e-02, -6.326360344929235e-02, -1.460126744425990e-02, -7.896695396917302e-03, -1.057661576026754e-02, -8.557636227121548e-03, -7.265148904360932e-04}
		1-3
			{-1.134080295026385e-02, -7.526454511974230e-02, -4.902170156015363e-02, -1.838688614877261e-03, -2.879721725566944e-02, -6.109171973034655e-03, -3.248520927000464e-03, 8.506937346697271e-04}
			{2.917225117307496e-02, 1.587785600218723e-01, -7.568295586766867e-03, 1.066963572783944e-01, 2.155462991681012e-02, 3.481906578104416e-02, 1.765975833507338e-03, 1.068781162176586e-02}
			{-6.415340795252465e-02, -6.704330887170917e-02, -9.016587071505842e-02, -7.346208721221315e-02, -1.699365958916118e-02, -3.780413631633258e-02, -2.002051191928607e-02, -1.335401313620763e-02}
		2-0
			{1.046197201989925e-02, -7.288340203420091e-02, -1.233681672116708e-03, -1.828712046397582e-02, -1.414712548971678e-02, -8.298586419773655e-03, -1.963582847290663e-03, -1.279385278695874e-03}
			{5.355673154867965e-03, -8.145450634694890e-02, 3.007414009996922e-02, -1.640039488367408e-02, 3.520379775248618e-03, -1.739119844528696e-02, 2.779470035146244e-03, -1.699861101551329e-03}
			{-7.681139920120839e-02, 5.874374596332297e-02, -3.494288962847652e-02, 3.037658608296102e-02, -1.152254656843505e-03, 5.745446224129574e-03, 3.133420072115492e-03, 6.075036172001151e-03}
		2-1
			{4.700072874990499e-02, -2.151610994204655e-02, 5.567432349814060e-02, 1.247383688341187e-02, 1.792933946095477e-02, 5.267076021306536e-03, 5.700383362441067e-03, 3.697933496318943e-04}
			{1.445091076189068e-02, -3.597766824357513e-02, 5.172081090855729e-02, 1.396194147613077e-02, 2.015960127676521e-02, 6.891668254963387e-03, 8.935132805805974e-03, 5.996758518415816e-03}
			{-3.884368390373768e-02, 2.026806337956489e-02, 1.806722551955529e-02, -4.974889681087314e-03, 2.245739655253893e-02, -7.767916143614285e-03, 7.078586894293320e-03, -1.531303739547204e-03}
		2-2
			{-5.053986564160930e-02, -1.120603115641226e-01, -5.967865989974690e-02, -7.731629253697964e-02, -2.936328059043323e-02, -3.334845358548830e-02, -4.871870266669006e-03, -6.449821114296373e-03}
			{1.202844878083578e-01, 9.705866707747118e-02, 1.672364707498244e-01, 9.998792482339629e-02, 2.680281303482469e-02, 4.799187545253487e-02, 4.205335875619347e-03, 1.589436505736673e-02}
			{1.960024233125593e-01, 2.460079072687752e-01, 2.443159896612716e-01, 1.913875639243647e-01, 8.412318179537917e-02, 8.485136918832738e-02, 1.345464187329815e-02, 1.985542879703952e-02}
		2-3
			{-2.285489997629547e-01, -1.412816718651839e-01, -3.250487193885860e-01, -1.071307978579729e-01, -1.407848394532731e-01, -6.837492755252934e-02, -2.574403077533366e-02, -1.989356156550040e-02}
			{-2.222587644510206e-01, -3.262479976688190e-01, -2.879256990141033e-01, -1.222677497445022e-01, -1.275334329573392e-01, -5.594765807849737e-02, -2.161024874172400e-02, -8.258185312557205e-03}
			{1.051812398186076e-01, 2.077158810661259e-01, 1.014224787986516e-01, 1.127515852475813e-01, 7.113807442329351e-03, 4.234758835244184e-02, -1.741513223199956e-02, 7.860142955767884e-03}
		3-0
			{-7.389927365931703e-02, 2.968868064896601e-02, -7.940590772627455e-02, -1.638411395150061e-02, -2.681483009541034e-02, -4.739105491172946e-03, -1.321894451910566e-02, 4.354407434498552e-04}
			{-1.232657227197764e-01, 9.596867792657832e-03, -1.695649891792442e-01, -3.348284132182856e-02, -7.875409997179258e-02, -4.774472013648309e-03, -2.163086318714147e-02, 7.917431296530881e-04}
			{-1.307045865817985e-01, -4.709071951646654e-02, -1.779770467734168e-01, -1.425841408168436e-02, -9.330211745726989e-02, 8.358578389103482e-03, -2.356105174845153e-02, 1.293790022496778e-02}
		3-1
			{1.470620824067250e-03, -1.733845913549284e-02, 3.453380379058050e-02, -5.160952201098137e-02, 3.072294516794874e-02, -1.669705789900204e-02, 2.627118855571515e-03, -3.271230324854853e-03}
			{-7.351126656306796e-02, -8.896472885904598e-02, -9.766730626259235e-02, -8.614813249704048e-02, -2.498128675781095e-02, -2.844096193254145e-02, -9.384872984428689e-03, -8.736140182238243e-03}
			{8.874595080763918e-02, -6.401101967293325e-03, 1.448557509704330e-01, -1.591294555937968e-02, 7.197543905352154e-02, 6.489572047489120e-03, 1.920245630363701e-02, 5.930081652611532e-03}
		3-2
			{2.198478328829250e-01, 3.048538694765319e-01, 2.575526113749259e-01, 2.064915422298106e-01, 8.818871209346145e-02, 9.155717104697214e-02, 1.376149857843756e-02, 1.653005102818365e-02}
			{-9.979771077778352e-02, -2.261045259552451e-01, -2.327541354211308e-01, -1.929814619633851e-01, -1.236070034376830e-01, -7.160226645411658e-02, -2.688732970800451e-02, -2.765166871660369e-02}
			{1.386803452214296e-01, 2.282147452241251e-01, 1.647404591140301e-01, 2.079641618729362e-01, 6.757638364792071e-02, 1.106233525598738e-01, 1.974495634507633e-02, 2.447819062960236e-02}
		3-3
			{1.630108682694159e-01, 1.636109887216573e-01, 1.739697400856137e-01, 1.128128083603471e-02, 6.836332627703000e-02, -2.555833404589130e-02, 1.730435542129829e-02, -1.125870776401858e-02}
			{1.180220972537264e-01, 1.075370931893172e-01, 2.252243739762577e-02, -1.795892052446924e-01, -5.960215698280213e-02, -1.153171115656073e-01, -1.509442008769416e-02, -2.887943272664570e-02}
			{7.176240412841628e-02, 6.870248997149658e-02, 3.997660902640746e-02, -2.337168799164496e-02, -2.979373912883862e-03, -2.679736067088112e-02, -4.128113570891908e-04, -9.005752999830032e-03}
alpha_moments_count = 84
alpha_index_basic_count = 46
alpha_index_basic = {{0, 0, 0, 0}, {0, 1, 0, 0}, {0, 0, 1, 0}, {0, 0, 0, 1}, {0, 2, 0, 0}, {0, 1, 1, 0}, {0, 1, 0, 1}, {0, 0, 2, 0}, {0, 0, 1, 1}, {0, 0, 0, 2}, {0, 3, 0, 0}, {0, 2, 1, 0}, {0, 2, 0, 1}, {0, 1, 2, 0}, {0, 1, 1, 1}, {0, 1, 0, 2}, {0, 0, 3, 0}, {0, 0, 2, 1}, {0, 0, 1, 2}, {0, 0, 0, 3}, {0, 4, 0, 0}, {0, 3, 1, 0}, {0, 3, 0, 1}, {0, 2, 2, 0}, {0, 2, 1, 1}, {0, 2, 0, 2}, {0, 1, 3, 0}, {0, 1, 2, 1}, {0, 1, 1, 2}, {0, 1, 0, 3}, {0, 0, 4, 0}, {0, 0, 3, 1}, {0, 0, 2, 2}, {0, 0, 1, 3}, {0, 0, 0, 4}, {1, 0, 0, 0}, {1, 1, 0, 0}, {1, 0, 1, 0}, {1, 0, 0, 1}, {1, 2, 0, 0}, {1, 1, 1, 0}, {1, 1, 0, 1}, {1, 0, 2, 0}, {1, 0, 1, 1}, {1, 0, 0, 2}, {2, 0, 0, 0}}
alpha_index_times_count = 117
alpha_index_times = {{0, 0, 1, 46}, {1, 1, 1, 47}, {2, 2, 1, 47}, {3, 3, 1, 47}, {1, 4, 1, 48}, {2, 5, 1, 48}, {3, 6, 1, 48}, {1, 5, 1, 49}, {2, 7, 1, 49}, {3, 8, 1, 49}, {1, 6, 1, 50}, {2, 8, 1, 50}, {3, 9, 1, 50}, {4, 4, 1, 51}, {5, 5, 1, 51}, {6, 6, 1, 51}, {4, 5, 1, 52}, {5, 7, 1, 52}, {6, 8, 1, 52}, {4, 6, 1, 53}, {5, 8, 1, 53}, {6, 9, 1, 53}, {5, 5, 1, 54}, {7, 7, 1, 54}, {8, 8, 1, 54}, {5, 6, 1, 55}, {7, 8, 1, 55}, {8, 9, 1, 55}, {6, 6, 1, 56}, {8, 8, 1, 56}, {9, 9, 1, 56}, {4, 4, 1, 57}, {5, 5, 2, 57}, {6, 6, 2, 57}, {7, 7, 1, 57}, {8, 8, 2, 57}, {9, 9, 1, 57}, {4, 10, 1, 58}, {5, 11, 2, 58}, {6, 12, 2, 58}, {7, 13, 1, 58}, {8, 14, 2, 58}, {9, 15, 1, 58}, {4, 11, 1, 59}, {5, 13, 2, 59}, {6, 14, 2, 59}, {7, 16, 1, 59}, {8, 17, 2, 59}, {9, 18, 1, 59}, {4, 12, 1, 60}, {5, 14, 2, 60}, {6, 15, 2, 60}, {7, 17, 1, 60}, {8, 18, 2, 60}, {9, 19, 1, 60}, {10, 10, 1, 61}, {11, 11, 3, 61}, {12, 12, 3, 61}, {13, 13, 3, 61}, {14, 14, 6, 61}, {15, 15, 3, 61}, {16, 16, 1, 61}, {17, 17, 3, 61}, {18, 18, 3, 61}, {19, 19, 1, 61}, {20, 20, 1, 62}, {21, 21, 4, 62}, {22, 22, 4, 62}, {23, 23, 6, 62}, {24, 24, 12, 62}, {25, 25, 6, 62}, {26, 26, 4, 62}, {27, 27, 12, 62}, {28, 28, 12, 62}, {29, 29, 4, 62}, {30, 30, 1, 62}, {31, 31, 4, 62}, {32, 32, 6, 62}, {33, 33, 4, 62}, {34, 34, 1, 62}, {0, 35, 1, 63}, {1, 36, 1, 64}, {2, 37, 1, 64}, {3, 38, 1, 64}, {4, 39, 1, 65}, {5, 40, 2, 65}, {6, 41, 2, 65}, {7, 42, 1, 65}, {8, 43, 2, 65}, {9, 44, 1, 65}, {0, 45, 1, 66}, {35, 35, 1, 67}, {0, 46, 1, 68}, {0, 47, 1, 69}, {0, 57, 1, 70}, {0, 61, 1, 71}, {1, 48, 1, 72}, {2, 49, 1, 72}, {3, 50, 1, 72}, {1, 58, 1, 73}, {2, 59, 1, 73}, {3, 60, 1, 73}, {4, 51, 1, 74}, {5, 52, 2, 74}, {6, 53, 2, 74}, {7, 54, 1, 74}, {8, 55, 2, 74}, {9, 56, 1, 74}, {0, 63, 1, 75}, {0, 64, 1, 76}, {35, 47, 1, 77}, {47, 47, 1, 78}, {0, 68, 1, 79}, {0, 69, 1, 80}, {0, 70, 1, 81}, {0, 72, 1, 82}, {0, 75, 1, 83}}
alpha_scalar_moments = 29
alpha_moment_mapping = {0, 35, 45, 46, 47, 57, 61, 62, 63, 64, 65, 66, 67, 68, 69, 70, 71, 72, 73, 74, 75, 76, 77, 79, 80, 81, 82, 78, 83}
species_coeffs = {-3.295948401007078e+00, -3.301361593873286e+00, -3.301361593873287e+00, -3.301361593873285e+00}
moment_coeffs = {3.606859205053209e-01, -1.439209424295270e+00, 5.874074155391639e+00, 4.366206154358006e+00, -3.452820371159040e+00, 1.141465082048471e+01, 3.520660106264327e-01, -1.476573315717122e+00, 8.000345419732773e-01, 4.765515171736538e+00, -4.667366736870332e+00, -5.591056757956091e+00, -3.420052122204259e-01, -1.915170755023857e+00, -2.157774997915876e-01, 9.474454370676285e-01, -2.017374391202181e+00, -2.915156619575142e+00, 6.854577994126759e+00, 2.711729182939080e+00, -1.312297464392772e+00, 1.646930874088693e+00, -2.395253218476129e+00, -4.381334465287371e-01, 5.432640729399108e+00, -9.628391031939019e+00, 1.853994323994097e+01, 1.143806290531041e+00, -1.178436825872823e+00}